-58.33  048.04  028.93  -38.86  058.92  026.81 -24.79  -15.15  -68.73  -26.82  -44.11  -41.61
-89.12  -14.40  060.68  -20.67  015.95  015.01 -03.44  016.17  -78.06  -33.57  -52.80  -19.67
-94.75  -02.30  050.96  037.18  067.20  083.99 096.62  003.92  -77.00  -18.54  -94.27  -26.18
-78.09  -00.69  064.15  011.97  022.30  025.61 099.58  003.92  -99.65  -10.87  -68.97  -15.85
-78.26  -14.19  075.85  -18.18  028.59  015.01 094.51  025.38  -99.65  -23.79  -57.93  -16.46
-66.88  -14.19  066.34  -09.36  025.70  020.99 094.51  019.55  -99.65  -06.72  -63.35  -16.46
-66.88  -14.19  066.34  -09.36  025.70  013.75 090.68  019.55  -99.65  -13.69  -63.35  -16.46
-96.10  -02.30  082.47  037.18  067.20  077.80 096.62  003.92  -77.00  -18.54  -77.56  -09.69
-86.41  -14.19  066.34  -09.36  033.49  013.75 090.68  017.08  -99.65  -14.23  -63.35  -24.26
-89.12  -14.40  061.22  -20.67  022.33  015.01 070.39  034.24  -91.68  -23.79  -52.80  -16.01
-78.09  -02.09  064.15  030.65  022.30  025.51 097.40  003.92  -99.65  -13.92  -68.97  -15.85
-72.81  -15.49  064.15  011.97  024.73  026.24 099.58  017.08  -99.65  -14.23  -68.97  -15.85
-66.88  -14.19  066.34  -09.36  025.70  013.75 090.68  019.55  -99.65  -13.69  -63.35  -16.46
-98.87  -02.30  082.47  045.90  073.87  077.80 097.40  003.92  -77.00  -18.54  -74.98  013.69
-78.09  -02.09  064.15  030.65  055.40  030.16 097.40  003.92  -77.00  -18.54  -68.97  013.69
-62.01  -14.19  066.34  -09.36  025.70  013.75 090.68  019.55  -99.65  -14.23  -63.35  -16.46
-72.81  -15.49  064.15  011.97  024.73  026.24 099.58  017.08  -99.65  -14.23  -68.97  -15.85
-89.12  -14.40  060.68  -20.67  015.95  015.01 -03.44  016.17  -78.06  -33.57  -52.80  -24.60
-98.87  -02.30  082.47  037.18  073.87  077.80 096.62  003.92  -77.00  -18.54  -74.98  -09.69
-72.81  -15.77  064.15  011.97  030.46  013.75 090.68  017.08  -99.65  -14.23  -68.97  -15.85
-89.12  -14.40  059.62  -20.67  015.95  027.00 -03.44  016.17  -78.06  -33.57  -52.80  -24.60
-89.12  -14.40  064.78  -43.96  015.95  026.81 -03.44  -05.64  -78.06  -33.57  -42.57  -24.60
-58.33  076.18  023.44  -38.86  069.71  023.47 -21.74  -49.78  -99.96  -20.79  -59.51  -50.23
-89.12  -14.40  061.22  -20.67  022.33  015.01 070.39  034.24  -91.68  -23.79  -52.80  -16.01
-78.09  -02.09  064.15  030.65  029.29  025.51 097.40  003.92  -99.65  -13.92  -68.97  -15.85
-78.09  -02.09  064.15  030.65  029.29  025.51 097.40  003.92  -99.65  -13.92  -68.97  -15.85
-78.09  -00.69  064.15  030.65  022.30  025.61 097.40  003.92  -99.65  -10.87  -68.97  -15.85
-89.12  -14.40  060.68  -20.67  015.95  015.01 -03.44  016.17  -78.06  -33.57  -52.80  -24.60
-89.12  -14.40  059.62  -20.67  015.95  027.00 -03.44  016.17  -78.06  -33.57  -52.80  -24.60
-78.09  -02.09  064.15  030.65  022.30  025.51 097.40  003.92  -99.65  -10.87  -68.97  -15.85
-86.41  -14.19  066.34  -09.36  033.49  013.75 090.68  017.08  -99.65  -14.23  -63.35  -24.26
-72.81  -15.77  064.15  011.97  030.46  013.75 090.68  017.08  -99.65  -14.23  -68.97  -15.85
